digraph Tree {
node [shape=box, style="filled, rounded", color="black", fontname=helvetica] ;
edge [fontname=helvetica] ;
0 [label="petal length (cm) <= 2.45\ngini = 0.67\nsamples = 97\nvalue = [47, 53, 50]\nclass = versicolor", fillcolor="#f9fefb"] ;
1 [label="gini = 0.0\nsamples = 29\nvalue = [47, 0, 0]\nclass = setosa", fillcolor="#e58139"] ;
0 -> 1 [labeldistance=2.5, labelangle=45, headlabel="True"] ;
2 [label="petal width (cm) <= 1.65\ngini = 0.5\nsamples = 68\nvalue = [0, 53, 50]\nclass = versicolor", fillcolor="#f4fef8"] ;
0 -> 2 [labeldistance=2.5, labelangle=-45, headlabel="False"] ;
3 [label="sepal length (cm) <= 7.0\ngini = 0.07\nsamples = 34\nvalue = [0, 52, 2]\nclass = versicolor", fillcolor="#41e686"] ;
2 -> 3 ;
4 [label="petal length (cm) <= 4.9\ngini = 0.04\nsamples = 33\nvalue = [0, 52, 1]\nclass = versicolor", fillcolor="#3de683"] ;
3 -> 4 ;
5 [label="gini = 0.0\nsamples = 32\nvalue = [0, 52, 0]\nclass = versicolor", fillcolor="#39e581"] ;
4 -> 5 ;
6 [label="gini = 0.0\nsamples = 1\nvalue = [0, 0, 1]\nclass = virginica", fillcolor="#8139e5"] ;
4 -> 6 ;
7 [label="gini = 0.0\nsamples = 1\nvalue = [0, 0, 1]\nclass = virginica", fillcolor="#8139e5"] ;
3 -> 7 ;
8 [label="petal length (cm) <= 4.85\ngini = 0.04\nsamples = 34\nvalue = [0, 1, 48]\nclass = virginica", fillcolor="#843de6"] ;
2 -> 8 ;
9 [label="petal width (cm) <= 1.75\ngini = 0.38\nsamples = 3\nvalue = [0, 1, 3]\nclass = virginica", fillcolor="#ab7bee"] ;
8 -> 9 ;
10 [label="gini = 0.0\nsamples = 1\nvalue = [0, 0, 2]\nclass = virginica", fillcolor="#8139e5"] ;
9 -> 10 ;
11 [label="sepal width (cm) <= 3.0\ngini = 0.5\nsamples = 2\nvalue = [0, 1, 1]\nclass = versicolor", fillcolor="#ffffff"] ;
9 -> 11 ;
12 [label="gini = 0.0\nsamples = 1\nvalue = [0, 0, 1]\nclass = virginica", fillcolor="#8139e5"] ;
11 -> 12 ;
13 [label="gini = 0.0\nsamples = 1\nvalue = [0, 1, 0]\nclass = versicolor", fillcolor="#39e581"] ;
11 -> 13 ;
14 [label="gini = 0.0\nsamples = 31\nvalue = [0, 0, 45]\nclass = virginica", fillcolor="#8139e5"] ;
8 -> 14 ;
}